26 100
sentence -0.00053622725 0.00023643136 0.0051033497 0.009009273 -0.0093029495 -0.007116809 0.0064588725 0.008972988 -0.005015428 -0.0037633716 0.0073805046 -0.0015334714 -0.0045366134 0.006554052 -0.0048601604 -0.0018160177 0.0028765798 0.0009918738 -0.008285215 -0.009448818 0.007311766 0.005070262 0.0067576934 0.00076286553 0.0063508903 -0.0034053659 -0.0009464014 0.0057685734 -0.0075216377 -0.0039361035 -0.007511582 -0.00093004224 0.009538119 -0.007319167 -0.0023337686 -0.0019377411 0.008077437 -0.005930896 4.516244e-05 -0.004753734 -0.009603551 0.005007293 -0.008759585 -0.0043918253 -3.5099984e-05 -0.00029618145 -0.00766124 0.009614743 0.004982058 0.009233143 -0.008157917 0.004495798 -0.004137076 0.0008245361 0.00849862 -0.0044621765 0.0045175003 -0.00678696 -0.0035484887 0.009398508 -0.0015776526 0.00032137157 -0.00414063 -0.007682688 -0.0015080082 0.0024697948 -0.00088802696 0.0055336617 -0.002742977 0.0022600652 0.0054557943 0.008345953 -0.0014537406 -0.009208143 0.0043705525 0.00057178497 0.007441908 -0.00081328274 -0.0026384138 -0.008753009 -0.0008565569 0.002826563 0.005401429 0.0070526563 -0.0057031214 0.0018588197 0.0060888636 -0.004798051 -0.0031072604 0.0067976294 0.0016314756 0.00018991709 0.0034736372 0.00021777749 0.009618826 0.005060604 -0.00891739 -0.0070415605 0.0009014559 0.006392534
the -0.0086196875 0.003665738 0.0051898835 0.0057419385 0.0074669183 -0.0061676754 0.0011056137 0.0060472824 -0.0028400505 -0.0061735227 -0.000410223 -0.0083689485 -0.0056000124 0.007104539 0.0033525396 0.0072256695 0.0068002474 0.007530742 -0.0037891543 -0.00056180597 0.0023483764 -0.0045190323 0.008388732 -0.009858164 0.006764641 0.0029144168 -0.0049328315 0.0043981876 -0.0017395747 0.0067113843 0.00996485 -0.0043624435 -0.0005993378 -0.0056956373 0.0038508223 0.0027866268 0.0068910765 0.0061010956 0.009538497 0.009273417 0.007898068 -0.006989504 -0.009155865 -0.0003557527 -0.0030998408 0.007894317 0.005938574 -0.0015456629 0.0015109634 0.0017900408 0.007817571 -0.0095101865 -0.00020553112 0.0034691966 -0.0009389722 0.008381772 0.009010783 0.0065365066 -0.000711621 0.007710404 -0.008534335 0.0032071066 -0.004637997 -0.005088955 0.0035896183 0.0053703394 0.0077695143 -0.0057665063 0.007433361 0.0066254963 -0.0037098003 -0.008745641 0.0054374672 0.0065097557 -0.00078755023 -0.006709856 -0.0070859254 -0.0024970602 0.0051432536 -0.0036652375 -0.00937006 0.0038267397 0.004884479 -0.0064285635 0.0012085581 -0.002074877 2.4403334e-05 -0.009883509 0.0026920044 -0.0047501065 0.0010876465 -0.0015762246 0.002196673 -0.007881576 -0.002717184 0.0026631986 0.005346682 -0.0023915148 -0.009510094 0.004505879
is 9.456396e-05 0.0030773198 -0.006812645 -0.0013754654 0.007668581 0.0073464094 -0.0036732971 0.0026427018 -0.00831713 0.006205486 -0.0046373224 -0.0031641065 0.009311357 0.0008733857 0.007490703 -0.0060740625 0.005160507 0.009922823 -0.0084573915 -0.0051356913 -0.007064837 -0.0048626517 -0.0037785638 -0.008536199 0.007955606 -0.004843938 0.008423613 0.0052625705 -0.006550026 0.0039578713 0.0054701497 -0.007426536 -0.0074057197 -0.0024752307 -0.008625725 -0.0015815723 -0.00040343284 0.0032996845 0.0014418805 -0.00088142155 -0.005594058 0.0017303658 -0.0008973718 0.006793691 0.00397359 0.0045294715 0.0014343059 -0.0026998555 -0.0043668128 -0.0010320747 0.0014370275 -0.0026460087 -0.007073783 -0.007805307 -0.009121787 -0.0059351693 -0.0018474245 -0.0043238713 -0.0064606704 -0.0037173224 0.0042891586 -0.0037390434 0.008378175 0.0015339935 -0.0072423196 0.0094337985 0.0076312125 0.005493282 -0.0068488456 0.005822679 0.004009093 0.0051853694 0.0042559016 0.0019397545 -0.0031701624 0.008353845 0.00961218 0.003792603 -0.002836995 7.1275235e-06 0.0012188185 -0.008458325 -0.008223945 -0.00023101569 0.0012372875 -0.0057433806 -0.0047252737 -0.0073460746 0.008328616 0.00012129784 -0.0045093987 0.0057017053 0.009180015 -0.004099872 0.007964682 0.005375434 0.005879123 0.0005125904 0.008213084 -0.0070190406
this -0.008242678 0.009299355 -0.00019766092 -0.0019672764 0.0046036304 -0.004095316 0.0027431143 0.0069399667 0.006065426 -0.0075107943 0.00938235 0.0046718083 0.0039661205 -0.0062435055 0.00845998 -0.002150165 0.008825188 -0.0053620026 -0.008129419 0.006824559 0.0016711927 -0.002198509 0.009513601 0.009493855 -0.009774047 0.0025052286 0.0061566923 0.0038724565 0.0020227872 0.0004305017 0.00067363144 -0.0038206363 -0.0071402504 -0.0020888723 0.0039238976 0.008818683 0.00925915 -0.0059759365 -0.009402671 0.009764377 0.0034297847 0.005166117 0.006282345 -0.0028042626 0.0073227035 0.0028302716 0.0028710044 -0.00238037 -0.0031282497 -0.0023701417 0.0042764368 7.605791e-05 -0.009584279 -0.009665544 -0.006148194 -0.0001285696 0.001997416 0.0094319675 0.005584351 -0.0042906962 0.00027831673 0.0049643586 0.0076983096 -0.0011442233 0.0043234206 -0.0058143795 -0.00080419064 0.0081000505 -0.002360065 -0.009663455 0.0057792603 -0.0039298222 -0.0012228728 0.009980517 -0.0022563506 -0.0047570644 -0.0053293873 0.00698089 -0.005708872 0.002113663 -0.00525566 0.006120714 0.0043573068 0.002606355 -0.001491083 -0.0027460635 0.008992936 0.0052157748 -0.0021625196 -0.00947031 -0.007426052 -0.0010637414 -0.00079494715 -0.0025629092 0.0096827205 -0.00045852066 0.005873761 -0.0074475873 -0.0025060738 -0.0055498634
and -0.008734152 0.002129626 -0.0008767292 -0.009312774 -0.0094300555 -0.0014154322 0.004432659 0.003707322 -0.006503691 -0.006877609 -0.005000189 -0.0022913918 -0.0072496324 -0.009604754 -0.0027423555 -0.008358487 -0.0060406397 -0.0056774793 -0.0023407743 -0.0017113071 -0.00895778 -0.000729889 0.008151345 0.007691871 -0.007201216 -0.0036676733 0.0031128589 -0.0095681995 0.0014772003 0.006521593 0.0057521244 -0.008762588 -0.0045162886 -0.008136309 4.2088188e-05 0.009271255 0.0059773563 0.005071089 0.005061788 -0.0032406799 0.009557778 -0.007354938 -0.007275729 -0.0022697116 -0.000780014 -0.003216493 -0.0005941784 0.0074945353 -0.00069692807 -0.0016230744 0.0027485362 -0.008357513 0.0078552095 0.008543297 -0.009582907 0.0024438726 0.009904488 -0.007670315 -0.0069645736 -0.007740274 0.0083929505 -0.000678437 0.009153935 -0.008159844 0.0037409398 0.0026336194 0.0007383975 0.0023235865 -0.0074726553 -0.009361032 0.0023533527 0.0061536436 0.007986039 0.005731999 -0.00077972136 0.008304593 -0.009340154 0.0034032 0.00026963008 0.0038598396 0.007387682 -0.006728787 0.005588242 -0.009521583 -0.0008036432 -0.008692502 -0.0051028244 0.009291013 -0.0018537738 0.0029191526 0.009067869 0.008944744 -0.008209395 -0.0030085258 0.009896421 0.005101178 -0.0015931268 -0.008689469 0.0029683823 -0.0066745915
more 0.0081322715 -0.004457334 -0.0010683573 0.0010063648 -0.00019111396 0.0011481774 0.0061138608 -2.027154e-05 -0.0032459653 -0.0015107286 0.005897299 0.0015141022 -0.000724262 0.009333247 -0.0049212836 -0.00083840964 0.009175411 0.0067494274 0.001502856 -0.008882561 0.001148746 -0.0022882556 0.009368237 0.0012099278 0.0014900636 0.00240641 -0.0018360066 -0.004999634 0.0002324295 -0.0020141804 0.006600933 0.008940123 -0.0006747544 0.0029770148 -0.0061076544 0.0016993248 -0.0069262325 -0.008694027 -0.005900203 -0.008956475 0.007277595 -0.0057720314 0.008276352 -0.0072435453 0.003421675 0.009674999 -0.007785448 -0.009945057 -0.0043291464 -0.0026831306 -0.00027128935 -0.008831551 -0.008617558 0.0028002106 -0.008206407 -0.009069337 -0.0023404658 -0.008631808 -0.00705665 -0.008401151 -0.0003013289 -0.0045642983 0.0066271746 0.0015271604 -0.0033414757 0.006108972 -0.006013285 -0.0046561696 -0.007207509 -0.00433658 -0.00180933 0.006489643 -0.002770393 0.0049189674 0.0069044423 -0.0074637057 0.00456485 0.0061269784 -0.0029544747 0.006625022 0.0061258795 -0.006443485 -0.0067645516 0.0025389588 -0.0016238189 -0.006065128 0.009499209 -0.0051301466 -0.006554097 -0.000119885204 -0.002701428 0.0004444003 -0.0035374581 -0.0004193306 -0.00070861576 0.00082282064 0.008194817 -0.0057367072 -0.001659528 0.0055716075
final -0.007139015 0.0012410306 -0.0071767163 -0.002244618 0.0037193035 0.005833124 0.0011981833 0.0021027315 -0.0041103913 0.0072253332 -0.0063070417 0.004647216 -0.008219973 0.002036468 -0.004977052 -0.004247688 -0.0031089843 0.0056552086 0.005798401 -0.004974649 0.0007733309 -0.008495778 0.0078098057 0.009257291 -0.0027423275 0.0008002233 0.0007466519 0.005477885 -0.008606079 0.00058445573 0.0068694223 0.0022315944 0.0011246764 -0.009322155 0.008482367 -0.0062641273 -0.0029923737 0.003493787 -0.0007726276 0.0014112913 0.0017819917 -0.0068288995 -0.009724812 0.009040585 0.0061980546 -0.0069129276 0.0034034825 0.00020606398 0.0047537456 -0.007119943 0.004026954 0.0043474343 0.009957369 -0.00447374 -0.0013892639 -0.0073173214 -0.009697829 -0.009080257 -0.0010227549 -0.00650329 0.004849728 -0.0061640264 0.0025191857 0.0007394409 -0.003392154 -0.0009792233 0.009979125 0.009145887 -0.0044618296 0.009083027 -0.005641763 0.005930922 -0.0030972182 0.0034317516 0.0030172265 0.006900461 -0.0023738837 0.008775037 0.007589428 -0.009547646 -0.008008209 -0.0076378966 0.0029232574 -0.0027947223 -0.0069295205 -0.008128264 0.00830918 0.0019904887 -0.009328017 -0.0047927164 0.0031367384 -0.004713206 0.005280843 -0.0042334413 0.002641796 -0.008045687 0.006209886 0.004818889 0.0007871926 0.0030134476
one 0.00816812 -0.0044430327 0.008985434 0.008253665 -0.004435222 0.0003031051 0.004274491 -0.00392632 -0.0055599655 -0.0065123225 -0.0006707382 -0.00029592158 0.004463085 -0.002474054 -0.00017260908 0.0024618758 0.004867599 -3.080845e-05 -0.0063394094 -0.009260807 2.665758e-05 0.0066618943 0.0014660227 -0.008966522 -0.007938605 0.0065519023 -0.0037856805 0.0062549924 -0.006681032 0.008479662 -0.0065163244 0.00328802 -0.0010569858 -0.006787528 -0.0032875966 -0.001161412 -0.00547094 -0.0012113475 -0.0075633135 0.0026466595 0.009070149 -0.0023772502 -0.00097651005 0.0035135616 0.008665088 -0.005921853 -0.006887578 -0.0029329848 0.009147696 0.00086626766 -0.008678401 -0.001446979 0.009479466 -0.0075494875 -0.0053580985 0.009316563 -0.008973726 0.0038259076 0.0006654406 0.0066607012 0.008312753 -0.0028507852 -0.003992313 0.008897917 0.002089646 0.0062489416 -0.009445715 0.009590124 -0.0013483083 -0.006052115 0.0029925345 -0.00045661093 0.0047064926 -0.002283021 -0.0041378425 0.0022778988 0.0083543835 -0.004995606 0.0026686788 -0.007990555 -0.0067733466 -0.00046766878 -0.008767728 0.0027894378 0.0015985954 -0.0023196924 0.005003791 0.009748787 0.008454268 -0.0018802249 0.0020581519 -0.004003689 -0.008241406 0.0062779556 -0.0019491815 -0.00066620467 -0.001771332 -0.0045356657 0.0040617096 -0.0042701806
another -0.0095785465 0.008943115 0.0041650687 0.009234735 0.0066435025 0.0029247368 0.00980402 -0.004424641 -0.006803311 0.0042273807 0.003729 -0.005664611 0.00970476 -0.0035583067 0.009549406 0.0008347261 -0.0063384566 -0.001977117 -0.0073770545 -0.002979523 0.0010416972 0.009482687 0.009355848 -0.0065958775 0.003475151 0.0022755705 -0.0024893521 -0.009229172 0.0010271263 -0.008165706 0.006320189 -0.0058000805 0.005535439 0.009833723 -0.00016000033 0.0045284927 -0.0018094003 0.007360761 0.003940097 -0.009010324 -0.002398504 0.003628769 -9.9568366e-05 -0.0012012708 -0.0010554385 -0.0016716016 0.00060495257 0.0041650953 -0.0042527914 -0.0038336217 -5.2816868e-05 0.00026935578 -0.00016880632 -0.0047855065 0.0043134023 -0.0021719194 0.0021035396 0.000666523 0.005969677 -0.006842381 -0.00681571 -0.0044762576 0.009435829 -0.0015918827 -0.009429242 -0.0005450416 -0.004448923 0.0060000787 -0.009583686 0.002859001 -0.009252832 0.0012498009 0.005999198 0.0073973476 -0.0076214634 -0.0060530235 -0.006838441 -0.00791834 -0.0094990805 -0.002125497 -0.0008359325 -0.0072562015 0.0067870365 0.0011196196 0.0058288667 0.0014728665 0.0007893658 -0.0073681297 -0.002176658 0.0043210792 -0.0050853146 0.0011307895 0.002883364 -0.001536361 0.009932295 0.008349635 0.0024156666 0.0071182456 0.0058914376 -0.005580617
yet -0.005157556 -0.006667738 -0.0077768103 0.008312176 -0.0019817345 -0.006855022 -0.0041535595 0.00514393 -0.0028700258 -0.0037494092 0.0016219153 -0.0027770554 -0.0015834016 0.0010741671 -0.0029770783 0.008519837 0.0039104656 -0.0099596195 0.0062591466 -0.006754943 0.000769587 0.004405496 -0.005102645 -0.0021114952 0.0080962945 -0.004243779 -0.0076369457 0.009257424 -0.002155504 -0.0047205696 0.008571948 0.0042829476 0.004325669 0.009286079 -0.008453558 0.0052560945 0.002039268 0.0041893013 0.0016984172 0.0044634067 0.004486277 0.0061052456 -0.0032022828 -0.004576107 -0.00042665348 0.002533692 -0.0032632798 0.006058497 0.004153899 0.0077646025 0.0025694068 0.008117154 -0.0013873037 0.008077852 0.0037176833 -0.008047997 -0.0039336025 -0.0024719415 0.004893954 -0.00087294367 -0.0028317969 0.007833652 0.009324425 -0.0016151877 -0.0051605464 -0.004702074 -0.0048467945 -0.009602703 0.0013710627 -0.0042248378 0.00252585 0.0056149242 -0.004065481 -0.009596308 0.0015459609 -0.0067011397 0.0024945738 -0.0037816912 0.0070777843 0.0006400266 0.003561043 -0.0027400649 -0.0017099094 0.007653331 0.0014083828 -0.005850609 -0.007834839 0.0012319608 0.0064547486 0.005557118 -0.008978087 0.008592755 0.0040475093 0.007469847 0.009747936 -0.007289078 -0.0090401955 0.0058370857 0.009392359 0.0035065152
second 0.007088797 -0.00156793 0.007947499 -0.009488659 -0.008029499 -0.006640371 -0.0040034545 0.004989216 -0.0038135587 -0.008319905 0.008411777 -0.003747002 0.008608696 -0.0048957514 0.003918594 0.004922017 0.0023926091 -0.0028188038 0.0028491246 -0.008256236 -0.0027655398 -0.0025911583 0.007249006 -0.003463403 -0.006599703 0.004340427 -0.00047448516 -0.0035975564 0.006882472 0.0038723124 -0.0039002013 0.0007718885 0.009143502 0.007754656 0.006361872 0.0046673026 0.0023844899 -0.0018416261 -0.006371293 -0.0003018105 -0.0015653884 -0.0005722857 -0.006262871 0.0074340473 -0.006591493 -0.0072392775 -0.0027571463 -0.0015154004 -0.0076357173 0.000698241 -0.0053261113 -0.0012755442 -0.0073651113 0.0019605684 0.0032731986 -2.3138524e-05 -0.005448358 -0.0017260861 0.007084917 0.0037362587 -0.008881049 -0.0034135508 0.0023541022 0.0021380198 -0.009464008 0.004571166 -0.008656997 -0.007387068 0.003483112 -0.0034709584 0.003564471 0.008894091 -0.0035743224 0.009320425 0.0017110384 0.009847774 0.005705043 -0.009149483 -0.0033277308 0.006530175 0.0056027793 0.008705515 0.0069261026 0.008038888 -0.009823008 0.0042988253 -0.0050300765 0.003512386 0.006056688 0.0043921317 0.0075123594 0.0014977157 -0.0012649416 0.0057684006 -0.0056395675 3.8591625e-05 0.009456587 -0.00548125 0.0038142789 -0.008113021
word2vec 0.009770293 0.008165114 0.0012809718 0.0050975787 0.0014081288 -0.0064551616 -0.001428051 0.0064491653 -0.004617306 -0.0039930656 0.0049244044 0.0027130984 -0.0018479753 -0.0028769434 0.0060107317 -0.0057167388 -0.0032367026 -0.006487825 -0.0042346325 -0.008580995 -0.004469789 -0.008511229 0.0014037776 -0.0086181965 -0.009916656 -0.008201625 -0.006772666 0.006680585 0.0037845564 0.00035616636 -0.0029579818 -0.0074283206 0.0005334187 0.0004998922 0.00019561886 0.00085259555 0.0007863307 -6.81603e-05 -0.008007054 -0.0058702733 -0.008382912 -0.0013120425 0.001820637 0.007417128 -0.001963427 -0.0023252917 0.009487155 7.970452e-05 -0.0024045217 0.008604847 0.0026870037 -0.0053439722 0.006588106 0.0045101536 -0.007054467 -0.000323174 0.0008344865 0.0057473574 -0.0017176545 -0.00280653 0.0017484308 0.0008471715 0.0011928272 -0.0026342822 -0.0059857843 0.007322984 0.0075873756 0.0082963575 -0.008598847 0.0026364254 -0.0035599626 0.009620404 0.0029037679 0.0046411133 0.0023856151 0.006608478 -0.0057432903 0.007894413 -0.002410922 -0.0045618857 -0.0020609903 0.009733558 -0.0068565905 -0.00219172 0.0070009995 -5.5749417e-05 -0.006294967 -0.0063935257 0.008940395 0.006429576 0.004773593 -0.0032620477 -0.00926762 0.0037868882 0.0071605504 -0.0056328895 -0.007865013 -0.00297274 -0.0049318983 -0.0023151112
for -0.0019442164 -0.0052675214 0.009447114 -0.0092987325 0.0045039477 0.005404178 -0.0014092624 0.009007093 0.00988536 -0.005475043 -0.006021 -0.006746973 -0.007894882 -0.0030479168 -0.005594027 -0.00834468 0.00078290224 0.0029946566 0.0064147436 -0.00262895 -0.0044534765 0.0012495709 0.00039146186 0.008116999 0.00018280029 0.007231586 -0.008264516 0.008433537 -0.0018889094 0.008701154 -0.007616837 0.0017963862 0.0010564864 4.600525e-05 -0.0051032533 -0.009247698 -0.0072642174 -0.007951174 0.0019137275 0.00047846674 -0.0018131376 0.007120166 -0.002475692 -0.0013473093 -0.008900564 -0.009925413 0.008949398 -0.005753938 -0.0063729975 0.005199407 0.0066699935 -0.0068316413 0.0009597599 -0.0060084737 0.0016473436 -0.0042892788 -0.0034407973 0.0021856665 0.0086615775 0.0067281104 -0.009677057 -0.0056221043 0.007880333 0.0019893574 -0.004256052 0.0005988121 0.009520961 -0.0011027169 -0.009424638 0.0016084099 0.006232355 0.00628237 0.0040916502 -0.005650239 -0.00037069322 -5.531788e-05 0.0045717955 -0.0080415895 -0.008018309 0.0002647507 -0.008608299 0.0058201565 -0.00041781188 0.009971177 -0.0053439774 -0.00048613906 0.0077567734 -0.0040679323 -0.0050159004 0.0015900708 0.0026506938 -0.0025649595 0.0064475285 -0.0076599526 0.0033935606 0.00048997044 0.008732183 0.005982714 0.006815362 0.007822544
first -0.00950012 0.009562223 -0.0077707553 -0.0026455082 -0.004906409 -0.0049666967 -0.008023591 -0.0077835848 -0.004553212 -0.0012753617 -0.0051029883 0.006140542 -0.009516619 -0.0053071044 0.009437152 0.006991329 0.007675816 0.0042347396 0.00050709245 -0.0059811436 0.006018777 0.0026350308 0.0076994337 0.006393843 0.00794257 0.008657407 -0.009895755 -0.006755705 0.0013375747 0.0064403033 0.007373816 0.005516981 0.0076616253 -0.005125568 0.0065844096 -0.004108373 -0.0090553425 0.00914168 0.0013314044 -0.0027596795 -0.0024778426 -0.0042204787 0.004812337 0.004400222 -0.0026533627 -0.007341881 -0.0035658514 -0.00033661484 0.0060958923 -0.0028373385 -0.00012089491 0.00087972643 -0.0070956494 0.0020650018 -0.0014324236 0.0028021492 0.0048422217 -0.0013520193 -0.002780143 0.0077386475 0.005045599 0.0067135217 0.004515643 0.008667155 0.0074749696 -0.0010818875 0.008747638 0.0046017184 0.0054406333 -0.0013860846 -0.0020413185 -0.0044243457 -0.008515197 0.0030377281 0.008883192 0.008919742 -0.0019423545 0.0060861576 0.0037797235 -0.0042959657 0.002042924 -0.0054378854 0.008208892 0.0054329084 0.0031844343 0.0041025686 0.00865715 0.007272035 -0.0008334732 -0.007072768 0.008380473 0.007233584 0.0017304718 -0.0013474918 -0.005890092 -0.0045330906 0.008647966 -0.0031351077 -0.0063388194 0.0098700775
Advanced 0.0076966463 0.009120642 0.0011355019 -0.008325079 0.008425016 -0.0036962307 0.005742173 0.0043915794 0.009689945 -0.009293498 0.009208405 -0.009281528 -0.006907712 -0.009102195 -0.00554711 0.007368896 0.009164478 -0.0033253515 0.0037230505 -0.0036252034 0.007881471 0.005866876 2.0861626e-07 -0.0036286747 -0.007224306 0.004768616 0.0014529788 -0.0026131857 0.007837807 -0.0040496145 -0.009148986 -0.0022554707 0.00012514711 -0.006639255 -0.005486616 -0.008499777 0.009229873 0.007424028 -0.00029524326 0.0073676636 0.007950788 -0.00078357337 0.006612091 0.0037675237 0.0050768424 0.007252991 -0.0047393893 -0.002185533 0.0008731234 0.004236206 0.0033043313 0.0050958274 0.0045864857 -0.008438509 -0.0031838394 -0.0072367596 0.009681422 0.0050065992 0.00017084122 0.004112978 -0.007656131 -0.006294651 0.0030763936 0.0065346383 0.0039498745 0.006018022 -0.0019861318 -0.0033451295 0.00020717025 -0.0031943608 -0.0055169044 -0.0077885604 0.006535543 -0.001090337 -0.0018908798 -0.007804775 0.009337573 0.00086814165 0.0017696369 0.002491666 -0.007385993 0.0016388226 0.002976563 -0.00856703 0.004955802 0.0024334085 0.0074979127 0.0050442982 -0.0030317164 -0.007162937 0.0070962133 0.0019015349 0.005199236 0.006381109 0.0019122792 -0.0061276113 -6.2966346e-06 0.008268298 -0.006098548 0.009438281
users -0.0071909428 0.0042328904 0.0021633946 0.0074407146 -0.004889265 -0.0045643463 -0.006098174 0.0032993674 -0.004499463 0.008522885 -0.004288827 -0.00910542 -0.0048163556 0.0064164903 -0.006371324 -0.0052615367 -0.007304411 0.0060222615 0.003357594 0.0028483903 -0.0031385506 0.006030891 -0.0061527453 -0.0019801008 -0.005983082 -0.0009956801 -0.002020986 0.008485946 7.800102e-05 -0.008575326 -0.0054290984 -0.006875986 0.0026923812 0.009456648 -0.005815996 0.008265026 0.008532052 -0.007062639 -0.008883213 0.009469184 0.008374364 -0.0046908916 -0.006726041 0.007842137 0.0037633455 0.008095504 -0.007571546 -0.009525085 0.001577406 -0.009805768 -0.0048858845 -0.0034601032 0.009620923 0.008623569 -0.0028356076 0.005826873 0.008237095 -0.002262981 0.009528542 0.007160215 0.0020415008 -0.0038487636 -0.00508175 -0.0030516528 0.0078878645 -0.0061904346 -0.0029150224 0.009191022 0.0034566557 0.006072612 -0.008032816 -0.0007515049 0.0055224476 -0.0047144685 0.0074784933 0.009319591 -0.00040936828 -0.002063601 -0.0005933583 -0.0057858895 -0.008386281 -0.0015068734 -0.0025571836 0.004382434 -0.0068675173 0.0054136957 -0.0067450856 -0.00782029 0.008471712 0.008918614 -0.0034812402 0.0034914147 -0.005795735 -0.008750086 -0.0055155717 0.006748729 0.0064177597 0.009438073 0.007055285 0.0067549525
can 0.0013001668 -0.009804303 0.0045877625 -0.0005382228 0.0063320957 0.0017834747 -0.0031297982 0.007759973 0.0015546656 5.52094e-05 -0.004612954 -0.008453524 -0.007766832 0.00867051 -0.00892496 0.009034716 -0.009281018 -0.0002767563 -0.001907047 -0.008931146 0.00863006 0.0067778137 0.003019439 0.004833453 0.000112190246 0.009424681 0.0070212875 -0.009853726 -0.0044332207 -0.0012901116 0.0030477226 -0.0043239524 0.0014491666 -0.007845899 0.0027780735 0.004702692 0.0049373126 -0.0031757022 -0.008427041 -0.009220618 -0.00072289945 -0.007327465 -0.0068149627 0.0061200056 0.0071723033 0.0021174191 -0.007899401 -0.005698988 0.008051845 0.003920844 -0.00524047 -0.0073919045 0.0007715547 0.0034637547 0.0020791935 0.003100804 -0.0056205 -0.009889486 -0.007020837 0.00023030877 0.004618679 0.004526308 0.0018798125 0.0051706745 -0.00010536075 0.0041141664 -0.009123241 0.0077009117 0.006147474 0.0051241564 0.007206669 0.008439797 0.00073869585 -0.0017038607 0.00051862834 -0.009316781 0.008406214 -0.006379932 0.0084278425 -0.004244355 0.0006468427 -0.0091641685 -0.009558568 -0.00783681 -0.0077310563 0.000375582 -0.0072264625 -0.0049502132 -0.0052717067 -0.004289298 0.0070123114 0.00482939 0.008682771 0.0070935916 -0.005694406 0.007240796 -0.009294903 -0.0025875687 -0.0077571664 0.0041926014
load 0.0017994131 0.007046278 0.0029449775 -0.006980413 0.0077122445 -0.005989498 0.008997859 0.0029595958 -0.004016145 -0.004689898 -0.0044174534 -0.0061473087 0.009379106 -0.0026496348 0.007773522 -0.009679914 0.0021083297 -0.0012341805 0.0075449795 -0.009054821 0.007437806 -0.0051050726 -0.006013601 -0.005648977 -0.003379076 -0.0034104392 -0.0031965028 -0.0074922196 0.00070962537 -0.00057630264 -0.0016832046 0.003756857 -0.0076209586 -0.003221866 0.0051553585 0.008544672 -0.009808833 0.0071958867 0.005309121 -0.0038793366 0.008577288 -0.009222197 0.007248142 0.0053630504 0.0012932194 -0.005200433 -0.004178902 -0.003356165 0.0016081232 0.0015862781 0.007389034 0.009977035 0.008867389 -0.0040053357 0.009645155 -0.0006286732 0.004865806 0.0025486164 -0.000629436 0.0036666393 -0.0053200237 -0.0057566967 -0.0076034195 0.0019068583 0.0065259608 0.00088265125 0.0012566803 0.0031714472 0.0081339665 -0.0076997573 0.0022602233 -0.0074735153 0.0037101135 0.009510371 0.0075199855 0.0064262645 0.008013826 0.0065510566 0.0068564196 0.008682675 -0.0049483585 0.009212438 0.005060298 -0.0021306458 0.008487532 0.0050812033 0.009648639 0.0028330784 0.0098676095 0.0011975965 0.009129635 0.0035871575 0.0065639755 -0.0036113497 0.0067938976 0.0072437753 -0.0021332244 -0.0018595468 0.003612363 -0.0070359865
a 0.009730829 -0.009779153 -0.0065005654 0.0027895635 0.0064324355 -0.0053702146 0.002754666 0.009123142 -0.006820273 -0.0061029685 -0.0049905246 -0.0036808162 0.00185239 0.009682034 0.0064414465 0.00039982726 0.0024679848 0.008437586 0.009130802 0.0056265956 0.0059464937 -0.007616247 -0.003827469 -0.005679925 0.0061857654 -0.0022558006 -0.008784145 0.0076195397 0.00840166 -0.003323297 0.009120826 -0.0007389962 -0.0036262863 -0.00038191924 0.0001928961 -0.0034992828 0.0028163218 0.005733052 0.0068697636 -0.00890372 -0.0021894872 -0.0054815263 0.007517757 0.006499202 -0.0043624258 0.0023260086 -0.005954701 0.00024036328 0.00946158 -0.0026105521 -0.005184898 -0.0073977713 -0.0029129833 -0.0008605102 0.003529402 0.009742078 -0.003389484 0.0018987282 0.009683809 0.0015281455 0.00098312 0.009803484 0.009303282 0.0077079474 -0.006172859 0.009984372 0.005845992 0.009072298 -0.0019996045 0.0033496728 0.0068311244 -0.00389077 0.006644776 0.0025620626 0.009310981 -0.0030369349 -0.0031140563 0.0062129907 -0.009078909 -0.0072526108 -0.0065002427 -0.0007521482 -0.0023587663 0.0068153823 0.009238314 -0.00091117964 0.0014114091 0.0020205746 -0.0020173104 -0.008031587 0.007439535 -0.0042945687 0.0045756716 0.0090922 0.0030507317 0.003138173 0.0040599424 -0.002699173 0.0038296406 0.00033797784
model 0.005626712 0.005497371 0.0018291199 0.0057494068 -0.008968078 0.0065593575 0.009225992 -0.0042071473 0.0016075504 -0.0052338815 0.0010582185 0.0027701687 0.008160736 0.00054401276 0.0025570584 0.001297735 0.008402523 -0.0057077026 -0.00626183 -0.0036275184 -0.0023005498 0.005041063 -0.008120357 -0.0028335357 -0.008197427 0.00514971 -0.0025680638 -0.009067107 0.0040717293 0.009017323 -0.0030376601 -0.0058385395 0.0030198884 -0.00043584823 -0.009979436 0.008417704 -0.0073388875 -0.004930407 -0.002657081 -0.0054523144 0.00171651 0.009712814 0.0045722723 0.008088603 -0.00047045827 0.0006449234 -0.002668352 -0.008779561 0.0034313034 0.0020933736 -0.009421854 -0.004968437 -0.009734099 -0.0057197916 0.0040645422 0.008642861 0.00411165 0.0023884643 0.008144778 -0.0011192096 -0.0013977134 -0.008746823 -0.00012579202 -0.0025675725 0.00038607715 0.007279662 -0.0070414604 -0.0039464748 -0.0066646053 -0.0035441148 -0.0033158315 0.002137121 0.0033281683 -0.004957187 -0.0045462907 0.0011386942 0.0054534827 0.0053736498 -0.0029685367 -0.0042665256 -0.005616647 -0.00054498314 0.001946373 0.0015253461 0.0073525296 -0.0027333724 -6.592393e-05 -0.0055276332 -0.0011700654 -0.0077119637 -0.0009593296 0.0013096749 -0.008594744 0.0087485835 -0.009207866 -0.009624677 -0.008511624 0.0073132683 0.0054655685 0.009249462
continue 0.0025701774 0.00084652903 -0.0025394403 0.009357668 0.0027575088 0.0040956484 -0.0011829352 0.00090450404 0.0066243075 -0.00072650076 0.0033415079 -0.0006720209 0.0052483976 0.0036399341 0.0025825298 -0.005309893 -0.0047081006 0.004308022 -0.005907171 -0.0001802063 -0.0006335163 0.0034932434 -0.008442266 0.008817234 -0.0014487446 -0.005330927 0.004054469 -0.0019354904 -0.0077654826 -0.0044967984 -0.00038772702 -0.008946473 0.0005705631 0.0024417937 -0.003225273 0.0025704002 0.0024807977 0.009988216 0.0014305055 0.0020205379 0.0027795613 -0.0020778715 -0.008698616 0.008023174 -0.0019746972 -0.009692314 -0.0065520047 -0.003945861 0.003954347 0.005038581 0.006086011 -0.00677026 0.0006888378 -0.0027752817 -0.005209197 0.0069812727 0.0039519668 -0.003106507 -0.008276907 -0.005140786 -0.00064953446 0.0078117643 0.0060441853 -0.008451656 -0.009563535 0.0071338355 -0.002327566 -0.0036923087 0.0057498324 -0.0058443057 0.005093955 -0.0002424252 -0.0068751634 -0.00033163786 0.006358992 0.009293939 0.002220913 0.005050093 -0.0049745236 -0.0007975519 -0.0053176354 0.0011889625 -0.0017932141 -0.0036326349 -0.0070143794 0.009654432 0.0029758275 -0.0022812248 -0.00418409 0.0077137877 -0.0064818547 0.003121543 0.0007873571 0.008322881 0.0068361773 -0.002908647 0.0025351 -0.0016660726 -0.009454662 -0.002613461
training 0.0013325238 0.0065408563 0.009984603 0.009062455 -0.008015361 0.006491386 -0.0057147373 -0.0009715748 0.00048282265 0.0065819337 0.0044701435 0.004603727 0.009483124 0.0003826642 -0.0060387133 -0.0063301004 0.0064317896 -0.0052425815 -0.0028498126 0.004075284 -0.0022902358 -0.006025213 -0.002323655 0.001206919 0.0021833598 0.0060837734 -0.005214001 0.0030779613 0.007240676 0.0021951138 0.00539749 -0.0048453333 0.006152612 -0.0076012816 0.0034928655 -0.009321804 -0.0026043104 -0.009073199 -0.0015882683 -0.005364752 -0.0039439187 0.0011536527 0.0028003477 -0.0015263951 -0.008170515 -0.0059180222 0.00081929564 -0.0039462578 -0.009430448 -0.0007749748 0.0066332687 0.005978844 -0.009917259 0.003118583 -0.005987301 -0.009181891 0.00017021298 -0.00036962033 -0.0069719995 -0.0062800576 -0.0024260855 0.0070966566 -0.007545879 0.007698084 -0.0004754448 0.0010932934 0.009482661 0.00472816 -0.0035727667 0.0037356198 0.003519286 0.0063366974 6.933927e-05 -0.0044236863 0.0013182712 -0.0054142345 0.0014117574 0.004926181 0.005154848 0.009181637 -0.007512665 -0.005403644 0.0064693727 0.0013554788 -0.006611801 0.00088438985 0.0026770402 -0.0025288356 -0.0049601602 0.005004755 0.009621821 -0.0073646735 -0.00011532188 -0.0025644589 -0.006365142 -0.0013786554 -0.0052507855 0.009059995 -0.0057907687 0.003686075
it -0.0002420717 0.004222194 0.0021148878 0.010000787 0.00063019746 -0.00546648 -0.00117623 0.0020717005 -0.0033784264 -0.00784999 -0.0056011416 -0.006754973 0.0063569844 0.003921696 0.008221102 0.0065211295 -0.0061321785 0.002714669 0.008473326 0.0015946759 0.0030685228 0.0058170673 -0.008837982 0.009125858 0.0068222596 0.008512626 -0.008230432 0.0061739814 0.006632395 -0.0013601711 -0.0062906924 0.00532488 -0.006860856 -0.0053226864 0.0035119443 0.008086623 0.008696459 -0.0044022077 -0.009188618 0.009606691 0.0062936684 -0.0039675953 -0.00846313 -0.0047206082 -0.0039593233 -0.0032753975 0.00081850396 -0.00029383702 -0.0031136265 -0.0059988797 0.009423658 -0.00472842 -0.0072630043 0.0076879114 0.0025184716 0.008629092 -0.0044642854 -0.006895547 0.0009872047 -0.001177134 -0.009400678 -0.0016036052 0.0030580482 0.0065663788 0.006843906 0.0032101662 -0.004445716 -0.0018374821 -0.0039459746 0.005774849 -0.006362381 0.002105459 -0.0013419675 -0.005811659 -0.00724985 0.005853005 -0.008364692 -0.0006891218 0.0028249123 0.0077408263 -0.007299259 0.0033014698 0.009814417 -0.0069792564 -0.0035332046 0.0051332237 0.0052384455 0.0016245149 0.00797257 0.0008337591 0.0018719775 -0.0016033939 -0.0081687225 0.0032589482 0.0019731885 -0.008733191 -0.0006749056 7.763736e-05 -2.248219e-06 0.008710104
with -0.002509765 -0.005902171 0.007483533 -0.007259025 -0.008966274 -0.0017903816 -0.008366442 0.00039099163 0.0019439453 -0.0024709632 -0.006449177 -0.0003226569 -0.0010978044 0.0034932445 0.008128802 0.005855609 0.008439764 -0.008968296 0.00944329 -0.002365699 0.008697152 0.0023853572 0.0035857423 -0.0095812185 -0.0094861025 0.008984596 -0.0028980202 0.002815946 0.0064209355 -0.00030025534 0.009723135 -0.0010345503 -0.009673972 -0.007055562 -0.00104286 -0.0086734025 0.007423016 0.0036203957 -0.008746802 0.0084792795 0.008931006 0.0058463938 0.0069090393 -0.009571471 0.00049170083 -0.009221432 -0.0036664137 0.0002541698 -0.0002804849 0.0014641802 0.0032784056 0.002125332 0.005319861 0.007521766 -0.0058859643 0.007958964 0.0059921206 0.009784956 0.004624451 -0.0033285946 -0.0037470048 -0.00062906777 -0.0016528365 0.009873021 0.0011231223 0.0040084696 0.0034183438 -0.008850464 0.0067188996 0.008191299 -0.0016664937 0.0023341256 -0.0064778947 -0.006125191 0.008215536 -0.0030448239 0.0067378734 0.0015532823 -0.0019825953 0.0030558556 -0.0040215896 -0.0017863851 0.0013825247 0.0048862873 -0.0014046495 0.00065625017 -0.007932502 0.009495987 -0.008762504 0.00707026 0.003906338 -0.006997735 -0.005296316 -0.007937977 -0.005128383 0.007071262 0.0096410755 0.0021542166 0.0006413688 0.009524478
sentences -0.0049735666 -0.0012833046 0.0032806373 -0.006414033 -0.009701589 -0.0092602335 0.009020697 0.0053716935 -0.004788227 -0.008329642 0.0012939513 0.0028780627 -0.0012452841 0.0012708711 -0.004321303 0.004791366 0.0014751852 0.008877825 -0.009976514 -0.0052695703 -0.009102842 -0.00034791828 -0.007857306 0.005031241 -0.006396855 -0.0059528374 0.0050709103 -0.008159769 0.0014552021 -0.007239541 0.009862422 0.008633759 0.0017689526 0.0057885037 0.0045962157 -0.005991783 0.009756947 -0.0096822055 0.008049258 0.0027563798 -0.003055122 -0.0035618627 0.009071954 -0.0054409085 0.008186872 -0.006008887 0.008391377 -0.0005554938 0.007942599 -0.0031549716 0.005979215 0.0088043455 0.002543838 0.001317749 0.0050391923 0.008002522 0.008568014 0.0084927725 0.0070525263 0.00800265 0.00859974 -3.3091306e-05 -0.0010037315 0.0016657913 3.273487e-06 0.00068517687 -0.008600937 -0.009594731 -0.002314676 0.0089282 -0.0036475873 -0.0069781933 0.004879383 0.0010691178 0.0018510211 0.0036529566 0.0035206736 0.005726122 0.0012343001 0.0008444631 0.009045251 0.0027822172 -0.0047028554 0.0065421867 0.005213312 0.002870567 -0.0031378341 0.0033368361 0.006364298 0.00708104 0.00094116566 -0.008531767 0.00025776148 0.00037042022 0.003942982 -0.00946896 0.009707871 -0.006972277 0.00576144 -0.009429872
ds 0.009648528 0.007324829 0.0012616563 -0.003405236 -0.00045065998 0.00042262315 -0.006409205 0.005745158 0.0023714018 0.0037779354 -0.0072550178 0.008526291 0.0005082536 -0.00020392657 -0.009071607 0.0040487554 0.0067634354 0.0073550926 -0.006417525 -0.00785606 -0.005523714 -0.00060289743 -0.00833798 -0.008240116 -0.0019175697 0.0011392868 -0.009506548 -0.003732934 0.0006447804 0.0068099652 0.0017349911 -0.00063238264 -0.007481395 -0.0067420946 -0.0006944287 0.0074675824 0.00544287 -0.0014826906 0.0011723089 -0.0096057765 -0.0013844955 -0.004626223 0.005809311 -0.0023380124 -0.0047640656 -0.009475115 -0.0012003147 -0.00719777 -0.0016852176 -0.004069823 -0.0023741352 -0.003248335 -0.008156473 -0.0012484109 0.0016909433 -0.0040476443 -0.0076414524 -0.0035866357 -0.009047134 -0.000758425 0.0058830045 -0.002961346 0.0031617582 0.004995718 0.008468428 0.0056214156 0.009508546 -0.009646681 -0.007962675 -0.0067581558 -0.0074677086 -0.007963618 -0.007788169 -0.0029426264 0.0013961601 -0.0028747893 -0.0088162515 0.004985862 0.00090089085 0.0045904014 0.007195338 0.007648294 -0.0008046472 0.00365996 -0.005123576 0.0019106817 0.0045382692 0.009886663 -0.0031874895 0.002839334 -0.0057363496 -0.0022105658 0.008125096 -0.0039046574 -0.0011885798 -0.009284974 -0.009476776 0.008882767 -0.005702922 0.005052792
